booster[0]:
0:[5<3.33200002] yes=1,no=2,missing=2
	1:[0<17.1200008] yes=3,no=4,missing=4
		3:[2<0.858399987] yes=7,no=8,missing=8
			7:leaf=0.0103448248
			8:[0<12.6999998] yes=11,no=12,missing=12
				11:[0<12.1000004] yes=15,no=16,missing=16
					15:leaf=0.0857142806
					16:leaf=-2.55448485e-09
				12:leaf=0.142196536
		4:leaf=-0.0683168396
	2:[6<4.78200006] yes=5,no=6,missing=6
		5:leaf=0.0857142806
		6:[0<13.5] yes=9,no=10,missing=10
			9:leaf=-0.0715025961
			10:[6<5.53299999] yes=13,no=14,missing=14
				13:[2<0.894200027] yes=17,no=18,missing=18
					17:leaf=0.117073171
					18:leaf=-2.55448485e-09
				14:leaf=-0.070212774
booster[1]:
0:[6<5.61800003] yes=1,no=2,missing=2
	1:[4<3.46499991] yes=3,no=4,missing=4
		3:leaf=-0.0733656213
		4:[3<5.47900009] yes=5,no=6,missing=6
			5:leaf=0.0428571403
			6:leaf=-0.0545454584
	2:leaf=0.140663907
booster[2]:
0:[0<13.5] yes=1,no=2,missing=2
	1:[5<3.23699999] yes=3,no=4,missing=4
		3:[6<4.96299982] yes=5,no=6,missing=6
			5:[2<0.888000011] yes=7,no=8,missing=8
				7:leaf=-0.0567567609
				8:leaf=-2.55448485e-09
			6:leaf=0.0599999987
		4:leaf=0.143005177
	2:leaf=-0.073469393
booster[3]:
0:[5<3.33200002] yes=1,no=2,missing=2
	1:[0<17.1200008] yes=3,no=4,missing=4
		3:[2<0.858399987] yes=7,no=8,missing=8
			7:leaf=0.00922518969
			8:[0<12.6999998] yes=11,no=12,missing=12
				11:[6<4.73799992] yes=15,no=16,missing=16
					15:leaf=0.0808273479
					16:leaf=-0.00183649233
				12:leaf=0.124852434
		4:leaf=-0.0657635108
	2:[6<4.78200006] yes=5,no=6,missing=6
		5:leaf=0.0788699239
		6:[0<13.5] yes=9,no=10,missing=10
			9:leaf=-0.0688422471
			10:[6<5.53299999] yes=13,no=14,missing=14
				13:[4<3.40300012] yes=17,no=18,missing=18
					17:leaf=0.105670236
					18:leaf=-0.00210142904
				14:leaf=-0.0676124021
booster[4]:
0:[6<5.61800003] yes=1,no=2,missing=2
	1:[4<3.46499991] yes=3,no=4,missing=4
		3:leaf=-0.0707717016
		4:[5<2.29999995] yes=5,no=6,missing=6
			5:leaf=-0.0527879857
			6:leaf=0.0420821235
	2:leaf=0.122957781
booster[5]:
0:[0<13.5] yes=1,no=2,missing=2
	1:[5<3.23699999] yes=3,no=4,missing=4
		3:[6<4.96299982] yes=5,no=6,missing=6
			5:[4<3.07299995] yes=7,no=8,missing=8
				7:leaf=-0.0557462871
				8:leaf=0.000949976151
			6:leaf=0.0567323752
		4:leaf=0.124873772
	2:leaf=-0.0707869902
booster[6]:
0:[6<5.61800003] yes=1,no=2,missing=2
	1:[0<13.5] yes=3,no=4,missing=4
		3:[5<3.23699999] yes=7,no=8,missing=8
			7:[6<4.96299982] yes=13,no=14,missing=14
				13:leaf=0.0887870565
				14:leaf=-0.0144745484
			8:leaf=-0.0664573461
		4:[4<3.5250001] yes=9,no=10,missing=10
			9:leaf=0.10933651
			10:leaf=0.0339941196
	2:[5<2.10899997] yes=5,no=6,missing=6
		5:[0<18.8899994] yes=11,no=12,missing=12
			11:leaf=0.00213981676
			12:leaf=-0.0386932828
		6:leaf=-0.06704925
booster[7]:
0:[6<5.61800003] yes=1,no=2,missing=2
	1:[4<3.46499991] yes=3,no=4,missing=4
		3:leaf=-0.0684657693
		4:[5<2.29999995] yes=5,no=6,missing=6
			5:leaf=-0.0507451296
			6:leaf=0.0402348451
	2:leaf=0.109751098
booster[8]:
0:[0<13.5] yes=1,no=2,missing=2
	1:[5<3.23699999] yes=3,no=4,missing=4
		3:[6<4.96299982] yes=5,no=6,missing=6
			5:[3<5.00899982] yes=7,no=8,missing=8
				7:leaf=0.00186221942
				8:leaf=-0.0546996556
			6:leaf=0.0538054667
		4:leaf=0.111415379
	2:leaf=-0.0684137344
booster[9]:
0:[6<5.61800003] yes=1,no=2,missing=2
	1:[0<13.5] yes=3,no=4,missing=4
		3:[5<3.23699999] yes=7,no=8,missing=8
			7:[6<4.96299982] yes=13,no=14,missing=14
				13:[4<3.07299995] yes=15,no=16,missing=16
					15:leaf=0.0916316882
					16:leaf=0.0292651746
				14:leaf=-0.0139759379
			8:leaf=-0.0643138066
		4:[4<3.5250001] yes=9,no=10,missing=10
			9:leaf=0.0989783704
			10:leaf=0.0320392624
	2:[5<2.10899997] yes=5,no=6,missing=6
		5:[2<0.875100017] yes=11,no=12,missing=12
			11:leaf=0.00403453177
			12:leaf=-0.0377118699
		6:leaf=-0.0649049878
booster[10]:
0:[6<5.61800003] yes=1,no=2,missing=2
	1:[4<3.46499991] yes=3,no=4,missing=4
		3:leaf=-0.0663513467
		4:[3<5.47900009] yes=5,no=6,missing=6
			5:leaf=0.0405608825
			6:leaf=-0.0495333634
	2:leaf=0.0994838774
booster[11]:
0:[0<13.5] yes=1,no=2,missing=2
	1:[5<3.23699999] yes=3,no=4,missing=4
		3:[6<4.96299982] yes=5,no=6,missing=6
			5:[4<3.07299995] yes=7,no=8,missing=8
				7:leaf=-0.0531913638
				8:leaf=0.00310798967
			6:leaf=0.0500394292
		4:leaf=0.101081803
	2:leaf=-0.0662846193
booster[12]:
0:[6<5.61800003] yes=1,no=2,missing=2
	1:[0<12.7399998] yes=3,no=4,missing=4
		3:[6<4.73799992] yes=7,no=8,missing=8
			7:leaf=0.072968252
			8:[5<2.21700001] yes=13,no=14,missing=14
				13:leaf=-0.00472887047
				14:leaf=-0.0627773032
		4:[5<4.75600004] yes=9,no=10,missing=10
			9:[2<0.906400025] yes=15,no=16,missing=16
				15:leaf=0.0920587704
				16:leaf=0.0293070562
			10:[0<13.5] yes=17,no=18,missing=18
				17:leaf=-0.0454741307
				18:leaf=0.0623848736
	2:[5<2.10899997] yes=5,no=6,missing=6
		5:[0<18.8899994] yes=11,no=12,missing=12
			11:leaf=0.00518018473
			12:leaf=-0.0362809412
		6:leaf=-0.0629748181
booster[13]:
0:[6<5.61800003] yes=1,no=2,missing=2
	1:[4<3.46499991] yes=3,no=4,missing=4
		3:leaf=-0.0644721016
		4:[3<5.47900009] yes=5,no=6,missing=6
			5:leaf=0.0398959816
			6:leaf=-0.0480406098
	2:leaf=0.0913520232
booster[14]:
0:[0<13.5] yes=1,no=2,missing=2
	1:[5<3.23699999] yes=3,no=4,missing=4
		3:[6<4.96299982] yes=5,no=6,missing=6
			5:[3<5.00899982] yes=7,no=8,missing=8
				7:leaf=0.00394611573
				8:leaf=-0.0517857037
			6:leaf=0.0466461852
		4:leaf=0.0929374248
	2:leaf=-0.0643912703
booster[15]:
0:[6<5.61800003] yes=1,no=2,missing=2
	1:[0<12.7399998] yes=3,no=4,missing=4
		3:[6<4.73799992] yes=7,no=8,missing=8
			7:leaf=0.068775557
			8:[5<2.21700001] yes=13,no=14,missing=14
				13:leaf=-0.00508654723
				14:leaf=-0.0610634685
		4:[5<4.75600004] yes=9,no=10,missing=10
			9:[4<3.5250001] yes=15,no=16,missing=16
				15:leaf=0.0854135156
				16:leaf=0.0270010233
			10:[0<13.5] yes=17,no=18,missing=18
				17:leaf=-0.0438393019
				18:leaf=0.0585473776
	2:[5<2.10899997] yes=5,no=6,missing=6
		5:[2<0.875100017] yes=11,no=12,missing=12
			11:leaf=0.00703866733
			12:leaf=-0.0353661887
		6:leaf=-0.0612315647
booster[16]:
0:[6<5.61800003] yes=1,no=2,missing=2
	1:[4<3.46499991] yes=3,no=4,missing=4
		3:leaf=-0.0627973601
		4:[3<5.47900009] yes=5,no=6,missing=6
			5:leaf=0.038810797
			6:leaf=-0.0464766584
	2:leaf=0.0847690627
booster[17]:
0:[0<13.5] yes=1,no=2,missing=2
	1:[5<3.23699999] yes=3,no=4,missing=4
		3:[6<4.96299982] yes=5,no=6,missing=6
			5:[4<3.07299995] yes=7,no=8,missing=8
				7:leaf=-0.0502824448
				8:leaf=0.00386000471
			6:leaf=0.0440622307
		4:leaf=0.086417526
	2:leaf=-0.0627039298
booster[18]:
0:[6<5.61800003] yes=1,no=2,missing=2
	1:[0<12.7399998] yes=3,no=4,missing=4
		3:[6<4.73799992] yes=7,no=8,missing=8
			7:leaf=0.0646152794
			8:[5<2.21700001] yes=13,no=14,missing=14
				13:leaf=-0.00539298449
				14:leaf=-0.0595056824
		4:[5<4.75600004] yes=9,no=10,missing=10
			9:[4<3.5250001] yes=15,no=16,missing=16
				15:leaf=0.0799706504
				16:leaf=0.0250977818
			10:[0<13.5] yes=17,no=18,missing=18
				17:leaf=-0.0422794931
				18:leaf=0.0551389419
	2:[5<2.10899997] yes=5,no=6,missing=6
		5:[0<18.8899994] yes=11,no=12,missing=12
			11:leaf=0.00815922674
			12:leaf=-0.0340366475
		6:leaf=-0.059650898
booster[19]:
0:[6<5.61800003] yes=1,no=2,missing=2
	1:[4<3.46499991] yes=3,no=4,missing=4
		3:leaf=-0.0612960346
		4:[5<2.29999995] yes=5,no=6,missing=6
			5:leaf=-0.0452581458
			6:leaf=0.0386777036
	2:leaf=0.0793396086
booster[20]:
0:[0<13.5] yes=1,no=2,missing=2
	1:[5<3.23699999] yes=3,no=4,missing=4
		3:[6<4.96299982] yes=5,no=6,missing=6
			5:[3<5.00899982] yes=7,no=8,missing=8
				7:leaf=0.00441129087
				8:leaf=-0.0490472056
			6:leaf=0.0417136624
		4:leaf=0.0810715109
	2:leaf=-0.0611938722
booster[21]:
0:[5<3.33200002] yes=1,no=2,missing=2
	1:[0<17.1200008] yes=3,no=4,missing=4
		3:[2<0.858399987] yes=7,no=8,missing=8
			7:leaf=0.00301957177
			8:[0<12.6999998] yes=11,no=12,missing=12
				11:[0<12.1000004] yes=15,no=16,missing=16
					15:leaf=0.0567043126
					16:leaf=-0.00923513155
				12:leaf=0.080222778
		4:leaf=-0.0549983643
	2:[6<4.78200006] yes=5,no=6,missing=6
		5:leaf=0.0498632416
		6:[0<13.5] yes=9,no=10,missing=10
			9:leaf=-0.057661891
			10:[6<5.43900013] yes=13,no=14,missing=14
				13:[5<3.59699988] yes=17,no=18,missing=18
					17:leaf=0.0165965799
					18:leaf=0.0621764138
				14:[4<3.40300012] yes=19,no=20,missing=20
					19:leaf=-0.00772568956
					20:leaf=-0.0573566668
booster[22]:
0:[6<5.61800003] yes=1,no=2,missing=2
	1:[4<3.46499991] yes=3,no=4,missing=4
		3:leaf=-0.0599440336
		4:[3<5.47900009] yes=5,no=6,missing=6
			5:leaf=0.0388045795
			6:leaf=-0.0441907719
	2:leaf=0.0747897699
booster[23]:
0:[0<13.5] yes=1,no=2,missing=2
	1:[5<3.23699999] yes=3,no=4,missing=4
		3:[6<4.96299982] yes=5,no=6,missing=6
			5:[4<3.07299995] yes=7,no=8,missing=8
				7:leaf=-0.0478207693
				8:leaf=0.00480700471
			6:leaf=0.0395706333
		4:leaf=0.0766228959
	2:leaf=-0.0598338805
booster[24]:
0:[6<5.61800003] yes=1,no=2,missing=2
	1:[0<12.7399998] yes=3,no=4,missing=4
		3:[6<4.73799992] yes=7,no=8,missing=8
			7:leaf=0.0590767972
			8:[5<2.21700001] yes=11,no=12,missing=12
				11:leaf=-0.00659012515
				12:leaf=-0.0568840317
		4:[5<4.75600004] yes=9,no=10,missing=10
			9:[4<3.46499991] yes=13,no=14,missing=14
				13:leaf=0.0745663866
				14:[3<5.47900009] yes=17,no=18,missing=18
					17:leaf=-0.0150625324
					18:leaf=0.0609285794
			10:[0<13.5] yes=15,no=16,missing=16
				15:leaf=-0.0390843228
				16:leaf=0.0491953678
	2:[5<2.10899997] yes=5,no=6,missing=6
		5:leaf=-0.0125492336
		6:leaf=-0.0569700301
booster[25]:
0:[6<5.61800003] yes=1,no=2,missing=2
	1:[4<3.46499991] yes=3,no=4,missing=4
		3:leaf=-0.0587451942
		4:[3<5.47900009] yes=7,no=8,missing=8
			7:leaf=0.0372189358
			8:leaf=-0.0426075347
	2:[5<2.10899997] yes=5,no=6,missing=6
		5:[2<0.875100017] yes=9,no=10,missing=10
			9:leaf=0.00937261712
			10:leaf=0.0467805043
		6:leaf=0.0736714229
booster[26]:
0:[0<13.5] yes=1,no=2,missing=2
	1:[5<3.23699999] yes=3,no=4,missing=4
		3:[6<4.96299982] yes=5,no=6,missing=6
			5:[4<3.07299995] yes=7,no=8,missing=8
				7:leaf=-0.0467828959
				8:leaf=0.00517545687
			6:leaf=0.0379581936
		4:leaf=0.0728470311
	2:leaf=-0.0586122982
booster[27]:
0:[6<5.61800003] yes=1,no=2,missing=2
	1:[0<12.7399998] yes=3,no=4,missing=4
		3:[6<4.73799992] yes=7,no=8,missing=8
			7:leaf=0.0560335889
			8:[5<2.21700001] yes=11,no=12,missing=12
				11:leaf=-0.00676557189
				12:leaf=-0.055676844
		4:[5<4.75600004] yes=9,no=10,missing=10
			9:[5<3.33200002] yes=13,no=14,missing=14
				13:leaf=0.0720294341
				14:[4<3.37700009] yes=17,no=18,missing=18
					17:leaf=0.0586476289
					18:leaf=-0.0187536869
			10:[0<13.5] yes=15,no=16,missing=16
				15:leaf=-0.0377185903
				16:leaf=0.046711348
	2:[5<2.10899997] yes=5,no=6,missing=6
		5:leaf=-0.0119009111
		6:leaf=-0.0557250641
booster[28]:
0:[6<5.61800003] yes=1,no=2,missing=2
	1:[4<3.46499991] yes=3,no=4,missing=4
		3:leaf=-0.0576240495
		4:[5<2.29999995] yes=7,no=8,missing=8
			7:leaf=-0.0418004356
			8:leaf=0.0363207348
	2:[5<2.10899997] yes=5,no=6,missing=6
		5:[0<18.8899994] yes=9,no=10,missing=10
			9:leaf=0.00799050182
			10:leaf=0.0452475213
		6:leaf=0.0703784749
booster[29]:
0:[0<13.5] yes=1,no=2,missing=2
	1:[5<3.23699999] yes=3,no=4,missing=4
		3:[6<4.96299982] yes=5,no=6,missing=6
			5:[3<5.00899982] yes=7,no=8,missing=8
				7:leaf=0.00575861242
				8:leaf=-0.0456926189
			6:leaf=0.0361458771
		4:leaf=0.0696525648
	2:leaf=-0.0575003698
booster[30]:
0:[6<5.61800003] yes=1,no=2,missing=2
	1:[0<12.7399998] yes=3,no=4,missing=4
		3:[6<4.73799992] yes=7,no=8,missing=8
			7:leaf=0.0536533482
			8:[5<2.21700001] yes=11,no=12,missing=12
				11:leaf=-0.0069147856
				12:leaf=-0.0545548461
		4:[5<4.75600004] yes=9,no=10,missing=10
			9:[5<3.33200002] yes=13,no=14,missing=14
				13:leaf=0.0691445917
				14:[2<0.888300002] yes=17,no=18,missing=18
					17:leaf=0.0562100224
					18:leaf=-0.0194182154
			10:[0<13.5] yes=15,no=16,missing=16
				15:leaf=-0.0364011899
				16:leaf=0.0444413833
	2:[5<2.10899997] yes=5,no=6,missing=6
		5:leaf=-0.0112726307
		6:leaf=-0.0545726083
booster[31]:
0:[6<5.61800003] yes=1,no=2,missing=2
	1:[4<3.46499991] yes=3,no=4,missing=4
		3:leaf=-0.0566167943
		4:[5<2.29999995] yes=7,no=8,missing=8
			7:leaf=-0.0403145924
			8:leaf=0.0348954014
	2:[5<2.10899997] yes=5,no=6,missing=6
		5:[2<0.875100017] yes=9,no=10,missing=10
			9:leaf=0.0065275291
			10:leaf=0.0439578854
		6:leaf=0.0675517842
booster[32]:
0:[0<13.5] yes=1,no=2,missing=2
	1:[5<3.23699999] yes=3,no=4,missing=4
		3:[6<4.96299982] yes=5,no=6,missing=6
			5:[4<3.07299995] yes=7,no=8,missing=8
				7:leaf=-0.044563666
				8:leaf=0.00605837489
			6:leaf=0.0344828442
		4:leaf=0.0669011921
	2:leaf=-0.0564894788
booster[33]:
0:[6<5.61800003] yes=1,no=2,missing=2
	1:[0<12.7399998] yes=3,no=4,missing=4
		3:[6<4.73799992] yes=7,no=8,missing=8
			7:leaf=0.0511467233
			8:[5<2.21700001] yes=11,no=12,missing=12
				11:leaf=-0.00704118237
				12:leaf=-0.0535052381
		4:[5<4.75600004] yes=9,no=10,missing=10
			9:[4<3.46499991] yes=13,no=14,missing=14
				13:leaf=0.0660924986
				14:[3<5.47900009] yes=17,no=18,missing=18
					17:leaf=-0.0157573465
					18:leaf=0.0529957525
			10:[0<13.5] yes=15,no=16,missing=16
				15:leaf=-0.035127949
				16:leaf=0.0423538648
	2:[5<2.10899997] yes=5,no=6,missing=6
		5:leaf=-0.0106558697
		6:leaf=-0.0534985252
booster[34]:
0:[6<5.61800003] yes=1,no=2,missing=2
	1:[4<3.46499991] yes=3,no=4,missing=4
		3:leaf=-0.0556939617
		4:[3<5.47900009] yes=7,no=8,missing=8
			7:leaf=0.0340494476
			8:leaf=-0.0390928797
	2:[5<2.10899997] yes=5,no=6,missing=6
		5:[0<18.8899994] yes=9,no=10,missing=10
			9:leaf=0.00531937322
			10:leaf=0.0426264592
		6:leaf=0.0651018992
booster[35]:
0:[0<13.5] yes=1,no=2,missing=2
	1:[5<3.23699999] yes=3,no=4,missing=4
		3:[6<4.96299982] yes=5,no=6,missing=6
			5:[2<0.888000011] yes=7,no=8,missing=8
				7:leaf=-0.0434182398
				8:leaf=0.00613560155
			6:leaf=0.0329473875
		4:leaf=0.0645086169
	2:leaf=-0.0555629991
booster[36]:
0:[6<5.61800003] yes=1,no=2,missing=2
	1:[0<12.7399998] yes=3,no=4,missing=4
		3:[6<4.73799992] yes=7,no=8,missing=8
			7:leaf=0.0490237847
			8:[5<2.21700001] yes=13,no=14,missing=14
				13:leaf=-0.00714763207
				14:leaf=-0.0525166579
		4:[5<3.33200002] yes=9,no=10,missing=10
			9:leaf=0.0646648556
			10:[0<13.5] yes=15,no=16,missing=16
				15:leaf=-0.0338953659
				16:[4<3.40300012] yes=17,no=18,missing=18
					17:leaf=0.0560209714
					18:leaf=-0.0187802818
	2:[0<16.7700005] yes=5,no=6,missing=6
		5:[0<16.2000008] yes=11,no=12,missing=12
			11:leaf=-0.0307571944
			12:leaf=0.0141167715
		6:leaf=-0.0529930703
booster[37]:
0:[6<5.61800003] yes=1,no=2,missing=2
	1:[4<3.46499991] yes=3,no=4,missing=4
		3:leaf=-0.0548279285
		4:[5<2.29999995] yes=7,no=8,missing=8
			7:leaf=-0.0382844619
			8:leaf=0.0330001153
	2:[5<2.10899997] yes=5,no=6,missing=6
		5:[2<0.875100017] yes=9,no=10,missing=10
			9:leaf=0.00399427395
			10:leaf=0.0415297188
		6:leaf=0.0629594177
booster[38]:
0:[0<13.5] yes=1,no=2,missing=2
	1:[5<3.23699999] yes=3,no=4,missing=4
		3:[6<4.96299982] yes=5,no=6,missing=6
			5:[3<5.00899982] yes=7,no=8,missing=8
				7:leaf=0.00659172237
				8:leaf=-0.0424511619
			6:leaf=0.0315219685
		4:leaf=0.0624092631
	2:leaf=-0.0547041893
booster[39]:
0:[5<3.33200002] yes=1,no=2,missing=2
	1:[0<17.1200008] yes=3,no=4,missing=4
		3:[0<12.6999998] yes=7,no=8,missing=8
			7:[6<4.96299982] yes=11,no=12,missing=12
				11:[3<5.00899982] yes=15,no=16,missing=16
					15:leaf=0.0138463993
					16:leaf=0.0457934551
				12:leaf=-0.0374078117
			8:leaf=0.0632782206
		4:leaf=-0.048388809
	2:[6<4.78200006] yes=5,no=6,missing=6
		5:leaf=0.0364734679
		6:[0<13.5] yes=9,no=10,missing=10
			9:leaf=-0.0509603396
			10:[4<3.43799996] yes=13,no=14,missing=14
				13:[6<5.53299999] yes=17,no=18,missing=18
					17:leaf=0.0518622063
					18:leaf=-0.028901184
				14:leaf=-0.0517925099
booster[40]:
0:[6<5.61800003] yes=1,no=2,missing=2
	1:[4<3.46499991] yes=3,no=4,missing=4
		3:leaf=-0.0540326908
		4:[5<2.29999995] yes=7,no=8,missing=8
			7:leaf=-0.0369358622
			8:leaf=0.0318054259
	2:[4<3.46600008] yes=5,no=6,missing=6
		5:[3<5.97900009] yes=9,no=10,missing=10
			9:leaf=0.0442329831
			10:leaf=-0.00495107239
		6:leaf=0.061774265
booster[41]:
0:[0<13.5] yes=1,no=2,missing=2
	1:[5<3.23699999] yes=3,no=4,missing=4
		3:[6<4.96299982] yes=5,no=6,missing=6
			5:[4<3.07299995] yes=7,no=8,missing=8
				7:leaf=-0.0415431485
				8:leaf=0.00712475879
			6:leaf=0.0302054491
		4:leaf=0.0605513342
	2:leaf=-0.0539068282
booster[42]:
0:[5<3.33200002] yes=1,no=2,missing=2
	1:[0<17.1200008] yes=3,no=4,missing=4
		3:[0<12.6999998] yes=7,no=8,missing=8
			7:[6<4.96299982] yes=11,no=12,missing=12
				11:[3<5.00899982] yes=17,no=18,missing=18
					17:leaf=0.0125746997
					18:leaf=0.0438168608
				12:leaf=-0.036498189
			8:leaf=0.0614960007
		4:leaf=-0.047235433
	2:[6<4.78200006] yes=5,no=6,missing=6
		5:leaf=0.034910731
		6:[3<5.54500008] yes=9,no=10,missing=10
			9:[5<6.68499994] yes=13,no=14,missing=14
				13:leaf=-0.0519733392
				14:leaf=-0.0148634035
			10:[6<5.53299999] yes=15,no=16,missing=16
				15:leaf=0.0480474606
				16:leaf=-0.0481774919
booster[43]:
0:[6<5.61800003] yes=1,no=2,missing=2
	1:[4<3.46499991] yes=3,no=4,missing=4
		3:leaf=-0.0532799065
		4:[3<5.47900009] yes=7,no=8,missing=8
			7:leaf=0.030815972
			8:leaf=-0.035911832
	2:[5<2.10899997] yes=5,no=6,missing=6
		5:[0<18.8899994] yes=9,no=10,missing=10
			9:leaf=0.00111166632
			10:leaf=0.037778724
		6:leaf=0.0595388375
booster[44]:
0:[0<13.5] yes=1,no=2,missing=2
	1:[5<3.23699999] yes=3,no=4,missing=4
		3:[0<12.6999998] yes=5,no=6,missing=6
			5:[6<4.73799992] yes=7,no=8,missing=8
				7:leaf=-0.033054024
				8:leaf=0.045756042
			6:leaf=-0.0396326296
		4:leaf=0.0588759892
	2:leaf=-0.0531617589
booster[45]:
0:[1<15.5100002] yes=1,no=2,missing=2
	1:[5<3.33200002] yes=3,no=4,missing=4
		3:[0<12.6999998] yes=5,no=6,missing=6
			5:[6<4.96299982] yes=9,no=10,missing=10
				9:[0<12.1000004] yes=13,no=14,missing=14
					13:leaf=0.0425796583
					14:leaf=0.0115440274
				10:leaf=-0.035380628
			6:leaf=0.0598039515
		4:[0<13.5] yes=7,no=8,missing=8
			7:leaf=-0.0491624959
			8:[4<3.43799996] yes=11,no=12,missing=12
				11:[3<5.76200008] yes=15,no=16,missing=16
					15:leaf=0.0508126393
					16:leaf=-0.00908365939
				12:leaf=-0.0401859693
	2:leaf=-0.0503287092
booster[46]:
0:[6<5.61800003] yes=1,no=2,missing=2
	1:[4<3.46499991] yes=3,no=4,missing=4
		3:leaf=-0.0525650755
		4:[5<2.29999995] yes=7,no=8,missing=8
			7:leaf=-0.0346592367
			8:leaf=0.0293176454
	2:[5<2.10899997] yes=5,no=6,missing=6
		5:[2<0.875100017] yes=9,no=10,missing=10
			9:leaf=0.000217409528
			10:leaf=0.0365133844
		6:leaf=0.058061678
booster[47]:
0:[0<13.5] yes=1,no=2,missing=2
	1:[5<3.23699999] yes=3,no=4,missing=4
		3:[0<12.6999998] yes=5,no=6,missing=6
			5:[6<4.73799992] yes=7,no=8,missing=8
				7:leaf=-0.0323055796
				8:leaf=0.0435783938
			6:leaf=-0.0381719731
		4:leaf=0.0573905893
	2:leaf=-0.052469939
booster[48]:
0:[1<15.5100002] yes=1,no=2,missing=2
	1:[5<3.33200002] yes=3,no=4,missing=4
		3:[0<12.6999998] yes=5,no=6,missing=6
			5:[6<4.96299982] yes=9,no=10,missing=10
				9:[3<5.00899982] yes=13,no=14,missing=14
					13:leaf=0.0104682054
					14:leaf=0.0415021963
				10:leaf=-0.0343137272
			6:leaf=0.0582635812
		4:[0<13.5] yes=7,no=8,missing=8
			7:leaf=-0.0482914224
			8:[4<3.43799996] yes=11,no=12,missing=12
				11:[3<5.76200008] yes=15,no=16,missing=16
					15:leaf=0.049080275
					16:leaf=-0.00863195863
				12:leaf=-0.0391016565
	2:leaf=-0.0495090298
booster[49]:
0:[6<5.61800003] yes=1,no=2,missing=2
	1:[4<3.46499991] yes=3,no=4,missing=4
		3:leaf=-0.0518822074
		4:[3<5.47900009] yes=7,no=8,missing=8
			7:leaf=0.0286303218
			8:leaf=-0.0337130912
	2:[5<2.10899997] yes=5,no=6,missing=6
		5:[0<18.8899994] yes=9,no=10,missing=10
			9:leaf=-0.000462271739
			10:leaf=0.0351492874
		6:leaf=0.0567340069
booster[50]:
0:[0<13.5] yes=1,no=2,missing=2
	1:[6<4.73799992] yes=3,no=4,missing=4
		3:leaf=-0.0344616659
		4:[5<1.73800004] yes=5,no=6,missing=6
			5:leaf=-0.0113312621
			6:[0<12.7399998] yes=7,no=8,missing=8
				7:leaf=0.0582949631
				8:[5<5.32399988] yes=9,no=10,missing=10
					9:leaf=0.00314561254
					10:leaf=0.0331760757
	2:leaf=-0.0518063605
booster[51]:
0:[1<15.5100002] yes=1,no=2,missing=2
	1:[5<3.33200002] yes=3,no=4,missing=4
		3:[0<12.6999998] yes=5,no=6,missing=6
			5:[6<4.96299982] yes=9,no=10,missing=10
				9:[0<12.1000004] yes=15,no=16,missing=16
					15:leaf=0.040161442
					16:leaf=0.00963605754
				10:leaf=-0.0334318727
			6:[2<0.863699973] yes=11,no=12,missing=12
				11:leaf=0.0178868454
				12:leaf=0.0589952543
		4:[0<13.5] yes=7,no=8,missing=8
			7:leaf=-0.0474687777
			8:[4<3.43799996] yes=13,no=14,missing=14
				13:[3<5.76200008] yes=17,no=18,missing=18
					17:leaf=0.047459852
					18:leaf=-0.0082000168
				14:leaf=-0.0380499475
	2:leaf=-0.0487153642
booster[52]:
0:[6<5.61800003] yes=1,no=2,missing=2
	1:[4<3.46499991] yes=3,no=4,missing=4
		3:leaf=-0.0512364283
		4:[3<5.47900009] yes=7,no=8,missing=8
			7:leaf=0.0274127815
			8:leaf=-0.0325134434
	2:[5<2.10899997] yes=5,no=6,missing=6
		5:[2<0.875100017] yes=9,no=10,missing=10
			9:leaf=-0.00125099428
			10:leaf=0.0339803807
		6:leaf=0.0555264242
booster[53]:
0:[0<13.5] yes=1,no=2,missing=2
	1:[5<3.23699999] yes=3,no=4,missing=4
		3:[6<4.96299982] yes=5,no=6,missing=6
			5:[4<3.07299995] yes=7,no=8,missing=8
				7:leaf=-0.0385096706
				8:leaf=0.0088614868
			6:leaf=0.0256311204
		4:leaf=0.0548040159
	2:leaf=-0.0511749201
booster[54]:
0:[1<15.5100002] yes=1,no=2,missing=2
	1:[5<3.33200002] yes=3,no=4,missing=4
		3:[0<12.6999998] yes=5,no=6,missing=6
			5:[6<4.73799992] yes=9,no=10,missing=10
				9:leaf=0.0403491966
				10:leaf=-0.0217462666
			6:[2<0.863699973] yes=11,no=12,missing=12
				11:leaf=0.017075114
				12:leaf=0.0578685366
		4:[0<13.5] yes=7,no=8,missing=8
			7:leaf=-0.0466323569
			8:[4<3.43799996] yes=13,no=14,missing=14
				13:[6<5.31599998] yes=15,no=16,missing=16
					15:leaf=0.0450294726
					16:leaf=9.92167406e-05
				14:leaf=-0.0370358415
	2:leaf=-0.0479399972
booster[55]:
0:[6<5.61800003] yes=1,no=2,missing=2
	1:[4<3.46499991] yes=3,no=4,missing=4
		3:leaf=-0.0506285988
		4:[5<2.29999995] yes=7,no=8,missing=8
			7:leaf=-0.0315995403
			8:leaf=0.0268426817
	2:[5<2.10899997] yes=5,no=6,missing=6
		5:[0<18.8899994] yes=9,no=10,missing=10
			9:leaf=-0.00177878549
			10:leaf=0.0327504724
		6:leaf=0.0544075556
booster[56]:
0:[0<13.5] yes=1,no=2,missing=2
	1:[5<1.55999994] yes=3,no=4,missing=4
		3:leaf=-0.0348160006
		4:[6<4.73799992] yes=5,no=6,missing=6
			5:leaf=-0.029725939
			6:[0<12.7399998] yes=7,no=8,missing=8
				7:leaf=0.0567616783
				8:[1<13.7299995] yes=9,no=10,missing=10
					9:leaf=0.00209249486
					10:leaf=0.0303539634
	2:leaf=-0.0505704358
booster[57]:
0:[1<15.5100002] yes=1,no=2,missing=2
	1:[5<3.33200002] yes=3,no=4,missing=4
		3:[0<12.6999998] yes=5,no=6,missing=6
			5:[6<4.73799992] yes=9,no=10,missing=10
				9:leaf=0.0389368683
				10:leaf=-0.0207131878
			6:[2<0.863699973] yes=11,no=12,missing=12
				11:leaf=0.0164565798
				12:leaf=0.0567421317
		4:[0<13.5] yes=7,no=8,missing=8
			7:leaf=-0.0458298922
			8:[4<3.43799996] yes=13,no=14,missing=14
				13:[1<14.8900003] yes=15,no=16,missing=16
					15:leaf=0.043628633
					16:leaf=-8.86182752e-05
				14:leaf=-0.036051292
	2:leaf=-0.0471802726
booster[58]:
0:[6<5.61800003] yes=1,no=2,missing=2
	1:[4<3.46499991] yes=3,no=4,missing=4
		3:leaf=-0.0500355847
		4:[3<5.47900009] yes=7,no=8,missing=8
			7:leaf=0.0257748198
			8:leaf=-0.0304350462
	2:[5<2.10899997] yes=5,no=6,missing=6
		5:leaf=0.018210439
		6:leaf=0.0533764139
booster[59]:
0:[0<13.5] yes=1,no=2,missing=2
	1:[5<1.55999994] yes=3,no=4,missing=4
		3:leaf=-0.0338678584
		4:[6<4.86999989] yes=5,no=6,missing=6
			5:[3<5.00899982] yes=7,no=8,missing=8
				7:leaf=0.0123038692
				8:leaf=-0.0188382734
			6:leaf=0.0545084067
	2:leaf=-0.0499887243
booster[60]:
0:[1<15.5100002] yes=1,no=2,missing=2
	1:[5<3.33200002] yes=3,no=4,missing=4
		3:[0<12.6999998] yes=5,no=6,missing=6
			5:[6<4.73799992] yes=9,no=10,missing=10
				9:leaf=0.0378577262
				10:leaf=-0.0199421812
			6:leaf=0.0535840765
		4:[0<13.5] yes=7,no=8,missing=8
			7:leaf=-0.0450137481
			8:[4<3.43799996] yes=11,no=12,missing=12
				11:[6<5.31599998] yes=13,no=14,missing=14
					13:leaf=0.0423248261
					14:leaf=-0.000423588295
				12:leaf=-0.0351011343
	2:leaf=-0.0464281738
booster[61]:
0:[6<5.61800003] yes=1,no=2,missing=2
	1:[4<3.46499991] yes=3,no=4,missing=4
		3:leaf=-0.0494616143
		4:[5<2.29999995] yes=7,no=8,missing=8
			7:leaf=-0.0295637604
			8:leaf=0.025264157
	2:[4<3.46600008] yes=5,no=6,missing=6
		5:[5<3.74699998] yes=9,no=10,missing=10
			9:leaf=-0.00840184744
			10:leaf=0.0336972512
		6:leaf=0.0528738201
booster[62]:
0:[0<13.5] yes=1,no=2,missing=2
	1:[5<1.55999994] yes=3,no=4,missing=4
		3:leaf=-0.0329618379
		4:[6<4.86999989] yes=5,no=6,missing=6
			5:[3<5.00899982] yes=7,no=8,missing=8
				7:leaf=0.0118456092
				8:leaf=-0.0181998871
			6:leaf=0.0534510799
	2:leaf=-0.0494221486
booster[63]:
0:[1<15.5100002] yes=1,no=2,missing=2
	1:[5<3.33200002] yes=3,no=4,missing=4
		3:[2<0.858399987] yes=5,no=6,missing=6
			5:leaf=-0.00458268682
			6:[0<12.6999998] yes=9,no=10,missing=10
				9:[0<12.1000004] yes=13,no=14,missing=14
					13:leaf=0.0363866501
					14:leaf=-0.0136844143
				10:leaf=0.0548246168
		4:[0<13.5] yes=7,no=8,missing=8
			7:leaf=-0.0442017131
			8:[4<3.43799996] yes=11,no=12,missing=12
				11:[1<14.8900003] yes=15,no=16,missing=16
					15:leaf=0.0410381071
					16:leaf=-0.000811688311
				12:leaf=-0.0341770165
	2:leaf=-0.0456203632
booster[64]:
0:[6<5.61800003] yes=1,no=2,missing=2
	1:[4<3.46499991] yes=3,no=4,missing=4
		3:leaf=-0.0488953963
		4:[3<5.47900009] yes=7,no=8,missing=8
			7:leaf=0.024294341
			8:leaf=-0.0284903087
	2:[5<2.10899997] yes=5,no=6,missing=6
		5:leaf=0.0153575493
		6:leaf=0.0515862592
booster[65]:
0:[0<13.5] yes=1,no=2,missing=2
	1:[5<3.23699999] yes=3,no=4,missing=4
		3:[6<4.96299982] yes=5,no=6,missing=6
			5:[2<0.88499999] yes=7,no=8,missing=8
				7:leaf=-0.0338477008
				8:leaf=0.00248497236
			6:leaf=0.02184969
		4:leaf=0.0506415479
	2:leaf=-0.0488625579
booster[66]:
0:[1<15.5100002] yes=1,no=2,missing=2
	1:[5<3.33200002] yes=3,no=4,missing=4
		3:[0<12.6999998] yes=5,no=6,missing=6
			5:[6<4.73799992] yes=9,no=10,missing=10
				9:leaf=0.0360456482
				10:leaf=-0.0195552669
			6:leaf=0.0515317991
		4:[0<13.5] yes=7,no=8,missing=8
			7:leaf=-0.043382816
			8:[4<3.43799996] yes=11,no=12,missing=12
				11:[6<5.31599998] yes=13,no=14,missing=14
					13:leaf=0.0398336127
					14:leaf=-0.00108813099
				12:leaf=-0.0332861654
	2:leaf=-0.0448795818
booster[67]:
0:[6<5.61800003] yes=1,no=2,missing=2
	1:[4<3.46499991] yes=3,no=4,missing=4
		3:leaf=-0.0483457707
		4:[2<0.903500021] yes=7,no=8,missing=8
			7:leaf=0.0037180786
			8:leaf=-0.00450781779
	2:[5<2.10899997] yes=5,no=6,missing=6
		5:leaf=0.0143313725
		6:leaf=0.0507210158
booster[68]:
0:[0<13.5] yes=1,no=2,missing=2
	1:[6<4.73799992] yes=3,no=4,missing=4
		3:leaf=-0.0301443338
		4:[5<1.73800004] yes=5,no=6,missing=6
			5:leaf=-0.0100233993
			6:[0<12.7399998] yes=7,no=8,missing=8
				7:leaf=0.0521373861
				8:leaf=0.0171027835
	2:leaf=-0.04831025
booster[69]:
0:[1<15.5100002] yes=1,no=2,missing=2
	1:[5<3.33200002] yes=3,no=4,missing=4
		3:[2<0.858399987] yes=5,no=6,missing=6
			5:leaf=-0.00521003455
			6:[3<5.00899982] yes=9,no=10,missing=10
				9:leaf=0.00519244559
				10:leaf=0.0509010032
		4:[0<13.5] yes=7,no=8,missing=8
			7:leaf=-0.0425917916
			8:[4<3.43799996] yes=11,no=12,missing=12
				11:[1<14.8900003] yes=13,no=14,missing=14
					13:leaf=0.0386326872
					14:leaf=-0.00118737877
				12:leaf=-0.0326856747
	2:leaf=-0.0441409312
booster[70]:
0:[6<5.61800003] yes=1,no=2,missing=2
	1:[4<3.46499991] yes=3,no=4,missing=4
		3:leaf=-0.0477944911
		4:[2<0.906400025] yes=7,no=8,missing=8
			7:leaf=0.000508688565
			8:leaf=-0.00103177445
	2:[5<2.10899997] yes=5,no=6,missing=6
		5:leaf=0.0133494018
		6:leaf=0.0499172136
booster[71]:
0:[0<13.5] yes=1,no=2,missing=2
	1:[5<1.55999994] yes=3,no=4,missing=4
		3:leaf=-0.0309575144
		4:[6<4.86999989] yes=5,no=6,missing=6
			5:[0<12.3699999] yes=7,no=8,missing=8
				7:leaf=-0.00926410779
				8:leaf=0.00353803532
			6:leaf=0.0508509986
	2:leaf=-0.047770422
booster[72]:
0:[1<15.5100002] yes=1,no=2,missing=2
	1:[5<3.33200002] yes=3,no=4,missing=4
		3:[0<12.6999998] yes=5,no=6,missing=6
			5:[6<4.73799992] yes=9,no=10,missing=10
				9:leaf=0.0342002958
				10:leaf=-0.0192673318
			6:leaf=0.0498743653
		4:[0<13.5] yes=7,no=8,missing=8
			7:leaf=-0.0417742804
			8:[4<3.43799996] yes=11,no=12,missing=12
				11:[6<5.30700016] yes=13,no=14,missing=14
					13:leaf=0.0363939144
					14:leaf=0.00322405878
				12:leaf=-0.0321044773
	2:leaf=-0.0434024446
booster[73]:
0:[6<5.61800003] yes=1,no=2,missing=2
	1:[4<3.46499991] yes=3,no=4,missing=4
		3:leaf=-0.0472390801
		4:leaf=4.78049587e-05
	2:[5<2.10899997] yes=5,no=6,missing=6
		5:leaf=0.0124287503
		6:leaf=0.04912211
booster[74]:
0:[0<13.5] yes=1,no=2,missing=2
	1:[6<4.73799992] yes=3,no=4,missing=4
		3:leaf=-0.0288744904
		4:[5<1.73800004] yes=5,no=6,missing=6
			5:leaf=-0.00924388599
			6:[0<12.7399998] yes=7,no=8,missing=8
				7:leaf=0.0505379513
				8:leaf=0.0148984585
	2:leaf=-0.0472323783
booster[75]:
0:[1<15.5100002] yes=1,no=2,missing=2
	1:[5<3.33200002] yes=3,no=4,missing=4
		3:[0<12.6999998] yes=5,no=6,missing=6
			5:[6<4.73799992] yes=9,no=10,missing=10
				9:leaf=0.0330997929
				10:leaf=-0.0184616316
			6:leaf=0.0490256511
		4:[0<13.5] yes=7,no=8,missing=8
			7:leaf=-0.0409759842
			8:[4<3.43799996] yes=11,no=12,missing=12
				11:[3<5.71700001] yes=13,no=14,missing=14
					13:leaf=0.0352439657
					14:leaf=0.00298792683
				12:leaf=-0.0315370522
	2:leaf=-0.0426628888
booster[76]:
0:[6<5.61800003] yes=1,no=2,missing=2
	1:[4<3.46499991] yes=3,no=4,missing=4
		3:leaf=-0.0466914624
		4:leaf=0.00039183037
	2:[5<2.10899997] yes=5,no=6,missing=6
		5:leaf=0.0115632219
		6:leaf=0.0483793318
booster[77]:
0:[0<13.5] yes=1,no=2,missing=2
	1:[5<3.23699999] yes=3,no=4,missing=4
		3:[6<4.96299982] yes=5,no=6,missing=6
			5:[2<0.88499999] yes=7,no=8,missing=8
				7:leaf=-0.031645935
				8:leaf=0.00291498867
			6:leaf=0.0199747439
		4:leaf=0.0472487807
	2:leaf=-0.0466956012
booster[78]:
0:[1<15.5100002] yes=1,no=2,missing=2
	1:[5<3.33200002] yes=3,no=4,missing=4
		3:[2<0.858399987] yes=5,no=6,missing=6
			5:leaf=-0.00595469773
			6:[0<12.6999998] yes=9,no=10,missing=10
				9:leaf=0.012233682
				10:leaf=0.0511124991
		4:[0<13.5] yes=7,no=8,missing=8
			7:leaf=-0.0401383229
			8:[4<3.38700008] yes=11,no=12,missing=12
				11:leaf=0.0310169552
				12:leaf=-0.019690033
	2:leaf=-0.0419211574
booster[79]:
0:[6<5.61800003] yes=1,no=2,missing=2
	1:[4<3.46499991] yes=3,no=4,missing=4
		3:leaf=-0.0461473316
		4:leaf=0.000713568064
	2:[5<2.10899997] yes=5,no=6,missing=6
		5:leaf=0.0107514253
		6:leaf=0.0476580821
booster[80]:
0:[0<13.1599998] yes=1,no=2,missing=2
	1:[6<4.96299982] yes=3,no=4,missing=4
		3:[5<2.704] yes=7,no=8,missing=8
			7:leaf=-0.0138484268
			8:leaf=0.01701653
		4:leaf=0.0477503575
	2:[5<5.3039999] yes=5,no=6,missing=6
		5:leaf=-0.0466845185
		6:leaf=-0.00158732722
booster[81]:
0:[5<3.33200002] yes=1,no=2,missing=2
	1:[0<17.1200008] yes=3,no=4,missing=4
		3:[0<12.6999998] yes=7,no=8,missing=8
			7:[6<4.73799992] yes=11,no=12,missing=12
				11:leaf=0.0316802189
				12:leaf=-0.0181951653
			8:leaf=0.047461506
		4:leaf=-0.0351196341
	2:[0<13.5] yes=5,no=6,missing=6
		5:leaf=-0.039367307
		6:[4<3.43799996] yes=9,no=10,missing=10
			9:[6<5.30700016] yes=13,no=14,missing=14
				13:leaf=0.0332816914
				14:leaf=0.000694999646
			10:leaf=-0.0401958488
booster[82]:
0:[6<5.61800003] yes=1,no=2,missing=2
	1:[4<3.46499991] yes=3,no=4,missing=4
		3:leaf=-0.0456168763
		4:leaf=0.00118933187
	2:[5<2.10899997] yes=5,no=6,missing=6
		5:leaf=0.0100120315
		6:leaf=0.0469366498
booster[83]:
0:[0<13.5] yes=1,no=2,missing=2
	1:[5<3.23699999] yes=3,no=4,missing=4
		3:[6<4.96299982] yes=5,no=6,missing=6
			5:[2<0.88499999] yes=7,no=8,missing=8
				7:leaf=-0.0306723006
				8:leaf=0.00390066369
			6:leaf=0.019167468
		4:leaf=0.0457080863
	2:leaf=-0.0456340425
booster[84]:
0:[1<15.5100002] yes=1,no=2,missing=2
	1:[5<3.33200002] yes=3,no=4,missing=4
		3:[0<12.6999998] yes=5,no=6,missing=6
			5:[6<4.73799992] yes=9,no=10,missing=10
				9:leaf=0.03075164
				10:leaf=-0.017870592
			6:leaf=0.0466791205
		4:[0<13.5] yes=7,no=8,missing=8
			7:leaf=-0.0385177135
			8:[4<3.38700008] yes=11,no=12,missing=12
				11:leaf=0.0290082972
				12:leaf=-0.019078901
	2:leaf=-0.0404757038
booster[85]:
0:[0<15.3800001] yes=1,no=2,missing=2
	1:leaf=-0.0450914353
	2:[1<15.5100002] yes=3,no=4,missing=4
		3:[5<2.95799994] yes=5,no=6,missing=6
			5:leaf=-0.028253505
			6:leaf=0.0313982144
		4:leaf=0.0465046577
booster[86]:
0:[0<13.1599998] yes=1,no=2,missing=2
	1:[6<4.96299982] yes=3,no=4,missing=4
		3:[3<5.09100008] yes=7,no=8,missing=8
			7:leaf=0.0118775535
			8:leaf=-0.0167501997
		4:leaf=0.0462330393
	2:[5<5.18200016] yes=5,no=6,missing=6
		5:leaf=-0.0455043055
		6:leaf=-0.00383686577
booster[87]:
0:[5<3.33200002] yes=1,no=2,missing=2
	1:[0<17.1200008] yes=3,no=4,missing=4
		3:[2<0.858399987] yes=7,no=8,missing=8
			7:leaf=-0.00663864613
			8:[0<12.6999998] yes=11,no=12,missing=12
				11:leaf=0.0110703101
				12:leaf=0.0488505475
		4:leaf=-0.0332922973
	2:[0<13.5] yes=5,no=6,missing=6
		5:leaf=-0.0377636477
		6:[4<3.43799996] yes=9,no=10,missing=10
			9:[0<15.3599997] yes=13,no=14,missing=14
				13:leaf=0.0304097813
				14:leaf=0.00323917158
			10:leaf=-0.0386337712
booster[88]:
0:[0<15.3800001] yes=1,no=2,missing=2
	1:leaf=-0.04451067
	2:[1<15.5100002] yes=3,no=4,missing=4
		3:[5<2.29999995] yes=5,no=6,missing=6
			5:leaf=-0.0343076102
			6:leaf=0.0258601662
		4:leaf=0.0457160324
booster[89]:
0:[0<13.5] yes=1,no=2,missing=2
	1:[5<3.23699999] yes=3,no=4,missing=4
		3:[6<4.96299982] yes=5,no=6,missing=6
			5:[3<5.08799982] yes=7,no=8,missing=8
				7:leaf=0.00160258857
				8:leaf=-0.0283497777
			6:leaf=0.0181855988
		4:leaf=0.0442256965
	2:leaf=-0.0445398055
booster[90]:
0:[1<15.5100002] yes=1,no=2,missing=2
	1:[5<3.33200002] yes=3,no=4,missing=4
		3:[2<0.858399987] yes=5,no=6,missing=6
			5:leaf=-0.00660774857
			6:[0<12.6999998] yes=9,no=10,missing=10
				9:leaf=0.0104218246
				10:leaf=0.0480225831
		4:[0<13.5] yes=7,no=8,missing=8
			7:leaf=-0.0369045548
			8:[4<3.38700008] yes=11,no=12,missing=12
				11:leaf=0.0271134507
				12:leaf=-0.0173231829
	2:leaf=-0.038815964
booster[91]:
0:[6<5.61800003] yes=1,no=2,missing=2
	1:[4<3.46499991] yes=3,no=4,missing=4
		3:leaf=-0.0440367088
		4:leaf=0.0021388419
	2:[5<2.10899997] yes=5,no=6,missing=6
		5:leaf=0.00760906516
		6:leaf=0.0450100563
booster[92]:
0:[0<13.1599998] yes=1,no=2,missing=2
	1:[6<4.96299982] yes=3,no=4,missing=4
		3:[3<5.09100008] yes=7,no=8,missing=8
			7:leaf=0.0107912039
			8:leaf=-0.0165197309
		4:leaf=0.0447544232
	2:[5<4.9749999] yes=5,no=6,missing=6
		5:leaf=-0.0442139208
		6:leaf=-0.00604220666
booster[93]:
0:[5<3.33200002] yes=1,no=2,missing=2
	1:[0<17.1200008] yes=3,no=4,missing=4
		3:[2<0.858399987] yes=7,no=8,missing=8
			7:leaf=-0.00614566728
			8:[0<12.6999998] yes=11,no=12,missing=12
				11:leaf=0.0101315109
				12:leaf=0.0473023839
		4:leaf=-0.0315076858
	2:[0<13.5] yes=5,no=6,missing=6
		5:leaf=-0.0361513607
		6:[4<3.43799996] yes=9,no=10,missing=10
			9:[6<5.26999998] yes=13,no=14,missing=14
				13:leaf=0.0287703853
				14:leaf=0.00342899747
			10:leaf=-0.0371199548
booster[94]:
0:[0<15.3800001] yes=1,no=2,missing=2
	1:leaf=-0.0433424823
	2:[1<15.5100002] yes=3,no=4,missing=4
		3:[5<2.95799994] yes=5,no=6,missing=6
			5:leaf=-0.025435213
			6:leaf=0.0284882933
		4:leaf=0.0442763418
booster[95]:
0:[0<13.5] yes=1,no=2,missing=2
	1:[5<3.23699999] yes=3,no=4,missing=4
		3:[6<4.96299982] yes=5,no=6,missing=6
			5:leaf=-0.0167653356
			6:leaf=0.0177501664
		4:leaf=0.0427631885
	2:leaf=-0.043408975
booster[96]:
0:[1<15.5100002] yes=1,no=2,missing=2
	1:[5<3.33200002] yes=3,no=4,missing=4
		3:[0<12.6999998] yes=5,no=6,missing=6
			5:[0<12.1000004] yes=9,no=10,missing=10
				9:leaf=0.021670742
				10:leaf=-0.0127687231
			6:leaf=0.0428572707
		4:[0<13.5] yes=7,no=8,missing=8
			7:leaf=-0.0352872945
			8:[4<3.40300012] yes=11,no=12,missing=12
				11:leaf=0.0222525131
				12:leaf=-0.0202475078
	2:leaf=-0.0372443907
booster[97]:
0:[0<15.3800001] yes=1,no=2,missing=2
	1:leaf=-0.0427372865
	2:[1<15.5100002] yes=3,no=4,missing=4
		3:[5<2.95799994] yes=5,no=6,missing=6
			5:leaf=-0.0241741873
			6:leaf=0.0273655858
		4:leaf=0.0435189493
booster[98]:
0:[0<13.5] yes=1,no=2,missing=2
	1:[5<3.23699999] yes=3,no=4,missing=4
		3:[6<4.96299982] yes=5,no=6,missing=6
			5:leaf=-0.0161005259
			6:leaf=0.0175171904
		4:leaf=0.0419855677
	2:leaf=-0.0427988395
booster[99]:
0:[1<15.5100002] yes=1,no=2,missing=2
	1:[5<3.33200002] yes=3,no=4,missing=4
		3:[2<0.858399987] yes=5,no=6,missing=6
			5:leaf=-0.00691627711
			6:[0<12.6999998] yes=9,no=10,missing=10
				9:leaf=0.00872933026
				10:leaf=0.0457279459
		4:[0<13.5] yes=7,no=8,missing=8
			7:leaf=-0.0344230942
			8:[4<3.40300012] yes=11,no=12,missing=12
				11:leaf=0.0213964637
				12:leaf=-0.0194803327
	2:leaf=-0.0363753699
booster[100]:
0:[0<15.3800001] yes=1,no=2,missing=2
	1:leaf=-0.0421257466
	2:[1<15.5100002] yes=3,no=4,missing=4
		3:[5<2.95799994] yes=5,no=6,missing=6
			5:leaf=-0.0227080341
			6:leaf=0.0263768174
		4:leaf=0.0427377336
booster[101]:
0:[0<13.1599998] yes=1,no=2,missing=2
	1:[6<4.96299982] yes=3,no=4,missing=4
		3:[3<5.01100016] yes=7,no=8,missing=8
			7:leaf=0.0127384169
			8:leaf=-0.014836669
		4:leaf=0.042702008
	2:[5<4.70200014] yes=5,no=6,missing=6
		5:leaf=-0.0420343168
		6:leaf=-0.0103400564
booster[102]:
0:[5<3.33200002] yes=1,no=2,missing=2
	1:[0<17.1200008] yes=3,no=4,missing=4
		3:[2<0.858399987] yes=7,no=8,missing=8
			7:leaf=-0.00676385919
			8:[0<12.6999998] yes=11,no=12,missing=12
				11:leaf=0.00847456045
				12:leaf=0.0448660962
		4:leaf=-0.02856992
	2:[4<3.43799996] yes=5,no=6,missing=6
		5:[0<13.5] yes=9,no=10,missing=10
			9:leaf=-0.0336885192
			10:leaf=0.0199644584
		6:leaf=-0.0346870422
booster[103]:
0:[0<15.3800001] yes=1,no=2,missing=2
	1:leaf=-0.0415200405
	2:[1<15.5100002] yes=3,no=4,missing=4
		3:[5<2.95799994] yes=5,no=6,missing=6
			5:leaf=-0.0215405263
			6:leaf=0.0254587568
		4:leaf=0.0419791713
booster[104]:
0:[0<13.5] yes=1,no=2,missing=2
	1:[5<3.23699999] yes=3,no=4,missing=4
		3:[6<4.96299982] yes=5,no=6,missing=6
			5:leaf=-0.0152502051
			6:leaf=0.0170462616
		4:leaf=0.0405406319
	2:leaf=-0.0416100435
booster[105]:
0:[1<15.5100002] yes=1,no=2,missing=2
	1:[5<3.33200002] yes=3,no=4,missing=4
		3:[2<0.858399987] yes=5,no=6,missing=6
			5:leaf=-0.00684144488
			6:[0<12.6999998] yes=9,no=10,missing=10
				9:leaf=0.00775115145
				10:leaf=0.0440813862
		4:[3<5.54500008] yes=7,no=8,missing=8
			7:[6<5.01200008] yes=11,no=12,missing=12
				11:leaf=-0.00372022507
				12:leaf=-0.0348488912
			8:leaf=0.0104690576
	2:leaf=-0.034697745
booster[106]:
0:[0<15.3800001] yes=1,no=2,missing=2
	1:leaf=-0.0408940203
	2:[1<15.5100002] yes=3,no=4,missing=4
		3:[5<2.95799994] yes=5,no=6,missing=6
			5:leaf=-0.0204177033
			6:leaf=0.024542179
		4:leaf=0.0412295945
booster[107]:
0:[0<13.1599998] yes=1,no=2,missing=2
	1:[6<4.96299982] yes=3,no=4,missing=4
		3:[2<0.871699989] yes=7,no=8,missing=8
			7:leaf=-0.0135048134
			8:leaf=0.00934436172
		4:leaf=0.0413255356
	2:[5<4.67500019] yes=5,no=6,missing=6
		5:leaf=-0.0405612029
		6:leaf=-0.0110548725
booster[108]:
0:[1<15.5100002] yes=1,no=2,missing=2
	1:[5<3.33200002] yes=3,no=4,missing=4
		3:[2<0.858399987] yes=5,no=6,missing=6
			5:leaf=-0.0066841091
			6:[0<12.6999998] yes=9,no=10,missing=10
				9:leaf=0.00750897545
				10:leaf=0.0432429314
		4:[3<5.54500008] yes=7,no=8,missing=8
			7:[6<5.01200008] yes=11,no=12,missing=12
				11:leaf=-0.00373971439
				12:leaf=-0.0340423547
			8:leaf=0.0102269873
	2:leaf=-0.0338290036
booster[109]:
0:[6<5.61800003] yes=1,no=2,missing=2
	1:[4<3.46499991] yes=3,no=4,missing=4
		3:leaf=-0.0408980362
		4:leaf=0.00396566978
	2:[5<2.10899997] yes=5,no=6,missing=6
		5:leaf=0.00368775683
		6:leaf=0.0415360294
booster[110]:
0:[0<13.5] yes=1,no=2,missing=2
	1:[5<3.23699999] yes=3,no=4,missing=4
		3:[6<4.96299982] yes=5,no=6,missing=6
			5:leaf=-0.0144361053
			6:leaf=0.0166611765
		4:leaf=0.0391462892
	2:leaf=-0.0403941423
booster[111]:
0:[5<3.33200002] yes=1,no=2,missing=2
	1:[0<17.1200008] yes=3,no=4,missing=4
		3:[0<12.6999998] yes=7,no=8,missing=8
			7:[0<12.1099997] yes=11,no=12,missing=12
				11:leaf=0.011519406
				12:leaf=-0.00815491285
			8:leaf=0.0380432978
		4:leaf=-0.0259931292
	2:[4<3.43799996] yes=5,no=6,missing=6
		5:[0<13.5] yes=9,no=10,missing=10
			9:leaf=-0.0314690694
			10:leaf=0.0185619034
		6:leaf=-0.0323303938
booster[112]:
0:[0<15.3800001] yes=1,no=2,missing=2
	1:leaf=-0.0396936759
	2:[1<15.5100002] yes=3,no=4,missing=4
		3:[5<2.95799994] yes=5,no=6,missing=6
			5:leaf=-0.0190993939
			6:leaf=0.0233490113
		4:leaf=0.0397839136
booster[113]:
0:[0<12.7399998] yes=1,no=2,missing=2
	1:[6<4.96299982] yes=3,no=4,missing=4
		3:leaf=0.000455480971
		4:leaf=0.0395662189
	2:[5<4.75600004] yes=5,no=6,missing=6
		5:leaf=-0.0404593125
		6:leaf=-0.00057921937
booster[114]:
0:[6<5.61800003] yes=1,no=2,missing=2
	1:[0<12.7399998] yes=3,no=4,missing=4
		3:[6<4.96299982] yes=7,no=8,missing=8
			7:leaf=0.0118208723
			8:leaf=-0.0332871191
		4:[5<3.33200002] yes=9,no=10,missing=10
			9:leaf=0.0390847884
			10:[3<5.47900009] yes=11,no=12,missing=12
				11:leaf=-0.00990018155
				12:leaf=0.0224161968
	2:[5<2.25900006] yes=5,no=6,missing=6
		5:leaf=-0.000250825542
		6:leaf=-0.0339788012
booster[115]:
0:[6<5.61800003] yes=1,no=2,missing=2
	1:[4<3.46499991] yes=3,no=4,missing=4
		3:leaf=-0.0397981293
		4:leaf=0.00405723928
	2:[5<2.10899997] yes=5,no=6,missing=6
		5:leaf=0.0029317725
		6:leaf=0.0404152423
booster[116]:
0:[0<13.5] yes=1,no=2,missing=2
	1:[5<3.23699999] yes=3,no=4,missing=4
		3:[2<0.871699989] yes=5,no=6,missing=6
			5:leaf=-0.0112140691
			6:leaf=0.00986685511
		4:leaf=0.0377576314
	2:leaf=-0.0391718224
booster[117]:
0:[1<15.5100002] yes=1,no=2,missing=2
	1:[5<3.33200002] yes=3,no=4,missing=4
		3:[2<0.858399987] yes=5,no=6,missing=6
			5:leaf=-0.00674399128
			6:[0<12.6999998] yes=9,no=10,missing=10
				9:leaf=0.00646687066
				10:leaf=0.0413240045
		4:[3<5.54500008] yes=7,no=8,missing=8
			7:[6<5.0630002] yes=11,no=12,missing=12
				11:leaf=-0.006192639
				12:leaf=-0.0309885088
			8:leaf=0.00938102137
	2:leaf=-0.0316629522
booster[118]:
0:[0<15.3800001] yes=1,no=2,missing=2
	1:leaf=-0.0384546332
	2:[5<2.10899997] yes=3,no=4,missing=4
		3:leaf=-0.00349150039
		4:[6<5.53299999] yes=5,no=6,missing=6
			5:leaf=0.00507503841
			6:leaf=0.039646484
booster[119]:
0:[0<12.7399998] yes=1,no=2,missing=2
	1:[6<4.96299982] yes=3,no=4,missing=4
		3:leaf=-1.53641722e-05
		4:leaf=0.0381865017
	2:[5<4.70200014] yes=5,no=6,missing=6
		5:leaf=-0.038930323
		6:leaf=-0.00238959095
booster[120]:
0:[1<15.5100002] yes=1,no=2,missing=2
	1:[5<3.33200002] yes=3,no=4,missing=4
		3:[0<12.6999998] yes=5,no=6,missing=6
			5:[0<12.1099997] yes=9,no=10,missing=10
				9:leaf=0.0115518216
				10:leaf=-0.0081584584
			6:leaf=0.0357681364
		4:[3<5.54500008] yes=7,no=8,missing=8
			7:[6<5.0630002] yes=11,no=12,missing=12
				11:leaf=-0.00606677495
				12:leaf=-0.0303591173
			8:leaf=0.00931623485
	2:leaf=-0.0309487339
booster[121]:
0:[0<15.3800001] yes=1,no=2,missing=2
	1:leaf=-0.0378470905
	2:[1<15.5100002] yes=3,no=4,missing=4
		3:[5<2.95799994] yes=5,no=6,missing=6
			5:leaf=-0.0178936291
			6:leaf=0.0216927882
		4:leaf=0.0377916545
booster[122]:
0:[0<13.5] yes=1,no=2,missing=2
	1:[6<4.96299982] yes=3,no=4,missing=4
		3:[0<12.1300001] yes=5,no=6,missing=6
			5:leaf=-0.0140926559
			6:leaf=0.00738113141
		4:leaf=0.0340748727
	2:leaf=-0.0379691683
booster[123]:
0:[5<3.33200002] yes=1,no=2,missing=2
	1:[6<5.61800003] yes=3,no=4,missing=4
		3:[0<12.6999998] yes=7,no=8,missing=8
			7:[2<0.868399978] yes=11,no=12,missing=12
				11:leaf=0.0113601303
				12:leaf=-0.00803663675
			8:leaf=0.036985267
		4:leaf=-0.0111507848
	2:[0<13.5] yes=5,no=6,missing=6
		5:leaf=-0.0289669875
		6:[4<3.43799996] yes=9,no=10,missing=10
			9:leaf=0.0174778402
			10:leaf=-0.0295552649
booster[124]:
0:[6<5.61800003] yes=1,no=2,missing=2
	1:[4<3.46499991] yes=3,no=4,missing=4
		3:leaf=-0.0381748937
		4:leaf=0.0044700373
	2:[5<2.12400007] yes=5,no=6,missing=6
		5:leaf=0.0031842012
		6:leaf=0.0383803211
booster[125]:
0:[0<13.5] yes=1,no=2,missing=2
	1:[5<3.23699999] yes=3,no=4,missing=4
		3:[2<0.871699989] yes=5,no=6,missing=6
			5:leaf=-0.0113196736
			6:leaf=0.00970353931
		4:leaf=0.0358610861
	2:leaf=-0.0373247042
booster[126]:
0:[1<15.5100002] yes=1,no=2,missing=2
	1:[2<0.865700006] yes=3,no=4,missing=4
		3:[4<2.93600011] yes=5,no=6,missing=6
			5:leaf=-0.0274553187
			6:leaf=-0.000975733914
		4:[2<0.896899998] yes=7,no=8,missing=8
			7:[5<3.59699988] yes=9,no=10,missing=10
				9:leaf=0.0367723592
				10:leaf=0.0026536088
			8:leaf=-0.00297002844
	2:leaf=-0.0295565575
booster[127]:
0:[0<15.3800001] yes=1,no=2,missing=2
	1:leaf=-0.0365969501
	2:[5<2.10899997] yes=3,no=4,missing=4
		3:leaf=-0.00391885499
		4:[6<5.53299999] yes=5,no=6,missing=6
			5:leaf=0.00438909559
			6:leaf=0.0378905199
booster[128]:
0:[0<12.7399998] yes=1,no=2,missing=2
	1:[6<4.96299982] yes=3,no=4,missing=4
		3:leaf=-0.000634063326
		4:leaf=0.0363763757
	2:[5<4.41900015] yes=5,no=6,missing=6
		5:leaf=-0.03664295
		6:leaf=-0.00500969542
booster[129]:
0:[5<3.33200002] yes=1,no=2,missing=2
	1:[6<5.61800003] yes=3,no=4,missing=4
		3:[0<12.6999998] yes=7,no=8,missing=8
			7:[2<0.868399978] yes=11,no=12,missing=12
				11:leaf=0.0107769547
				12:leaf=-0.00828011241
			8:leaf=0.0357593708
		4:leaf=-0.0100769009
	2:[4<3.43799996] yes=5,no=6,missing=6
		5:[0<13.5] yes=9,no=10,missing=10
			9:leaf=-0.0277032889
			10:leaf=0.0167451762
		6:leaf=-0.0284441393
booster[130]:
0:[0<15.3800001] yes=1,no=2,missing=2
	1:leaf=-0.0359989367
	2:[5<2.10899997] yes=3,no=4,missing=4
		3:leaf=-0.00390704162
		4:[6<5.53299999] yes=5,no=6,missing=6
			5:leaf=0.0042307633
			6:leaf=0.0372568481
booster[131]:
0:[0<13.5] yes=1,no=2,missing=2
	1:[6<4.96299982] yes=3,no=4,missing=4
		3:[0<12.21] yes=5,no=6,missing=6
			5:leaf=-0.0121447584
			6:leaf=0.00617825193
		4:leaf=0.0324725993
	2:leaf=-0.0361383893
booster[132]:
0:[1<15.5100002] yes=1,no=2,missing=2
	1:[2<0.865700006] yes=3,no=4,missing=4
		3:[5<3.9749999] yes=5,no=6,missing=6
			5:leaf=-0.00473374873
			6:leaf=-0.0219500288
		4:[2<0.896899998] yes=7,no=8,missing=8
			7:[5<3.59699988] yes=9,no=10,missing=10
				9:leaf=0.0357594304
				10:leaf=0.00273378729
			8:leaf=-0.00378006487
	2:leaf=-0.0283675492
booster[133]:
0:[0<15.3800001] yes=1,no=2,missing=2
	1:leaf=-0.0353606865
	2:[5<2.10899997] yes=3,no=4,missing=4
		3:leaf=-0.00398417236
		4:[6<5.53299999] yes=5,no=6,missing=6
			5:leaf=0.00402717991
			6:leaf=0.0366199948
booster[134]:
0:[0<12.7399998] yes=1,no=2,missing=2
	1:[6<4.96299982] yes=3,no=4,missing=4
		3:leaf=-0.000437917508
		4:leaf=0.0350539349
	2:[5<4.21700001] yes=5,no=6,missing=6
		5:leaf=-0.0350289941
		6:leaf=-0.00655622175
booster[135]:
0:[5<3.33200002] yes=1,no=2,missing=2
	1:[6<5.61800003] yes=3,no=4,missing=4
		3:[0<12.6999998] yes=7,no=8,missing=8
			7:[2<0.868399978] yes=11,no=12,missing=12
				11:leaf=0.0104537839
				12:leaf=-0.00850498118
			8:leaf=0.0346193239
		4:leaf=-0.00917964615
	2:[4<3.43799996] yes=5,no=6,missing=6
		5:[0<13.5] yes=9,no=10,missing=10
			9:leaf=-0.026619995
			10:leaf=0.0163389556
		6:leaf=-0.0273868591
booster[136]:
0:[6<5.61800003] yes=1,no=2,missing=2
	1:[4<3.46499991] yes=3,no=4,missing=4
		3:leaf=-0.03597451
		4:leaf=0.00435238099
	2:[5<2.20099998] yes=5,no=6,missing=6
		5:leaf=0.00393248443
		6:leaf=0.0354883112
booster[137]:
0:[0<13.5] yes=1,no=2,missing=2
	1:[6<4.96299982] yes=3,no=4,missing=4
		3:leaf=-0.00370327756
		4:leaf=0.0313828699
	2:leaf=-0.0349705257
booster[138]:
0:[5<3.33200002] yes=1,no=2,missing=2
	1:[6<5.61800003] yes=3,no=4,missing=4
		3:[0<12.6999998] yes=7,no=8,missing=8
			7:[2<0.868399978] yes=9,no=10,missing=10
				9:leaf=0.0103294505
				10:leaf=-0.00832118932
			8:leaf=0.034034919
		4:leaf=-0.00858821254
	2:[3<5.54500008] yes=5,no=6,missing=6
		5:leaf=-0.0228386912
		6:leaf=-0.00217424426
booster[139]:
0:[0<15.3800001] yes=1,no=2,missing=2
	1:leaf=-0.0341467969
	2:[5<2.10899997] yes=3,no=4,missing=4
		3:leaf=-0.00421425514
		4:[6<5.53299999] yes=5,no=6,missing=6
			5:leaf=0.00399523415
			6:leaf=0.0353748202
booster[140]:
0:[0<13.1599998] yes=1,no=2,missing=2
	1:[6<4.96299982] yes=3,no=4,missing=4
		3:leaf=-0.00252940203
		4:leaf=0.0344110094
	2:leaf=-0.0311719421
booster[141]:
0:[1<15.5100002] yes=1,no=2,missing=2
	1:[2<0.865700006] yes=3,no=4,missing=4
		3:leaf=-0.0161816739
		4:[2<0.896899998] yes=5,no=6,missing=6
			5:[5<3.59699988] yes=7,no=8,missing=8
				7:leaf=0.034642756
				8:leaf=0.00285078003
			6:leaf=-0.00495456532
	2:leaf=-0.026876891
booster[142]:
0:[0<15.3800001] yes=1,no=2,missing=2
	1:leaf=-0.0335706435
	2:[1<15.5100002] yes=3,no=4,missing=4
		3:[5<3.34699988] yes=5,no=6,missing=6
			5:leaf=-0.0088412948
			6:leaf=0.0136903664
		4:leaf=0.0335555039
booster[143]:
0:[0<13.5] yes=1,no=2,missing=2
	1:[6<4.96299982] yes=3,no=4,missing=4
		3:leaf=-0.00370546617
		4:leaf=0.030241346
	2:leaf=-0.0337596536
booster[144]:
0:[5<3.33200002] yes=1,no=2,missing=2
	1:[6<5.61800003] yes=3,no=4,missing=4
		3:[0<12.6999998] yes=7,no=8,missing=8
			7:leaf=0.000966168416
			8:leaf=0.0329731293
		4:leaf=-0.00775504438
	2:[3<5.54500008] yes=5,no=6,missing=6
		5:leaf=-0.0222121719
		6:leaf=-0.0014998758
booster[145]:
0:[0<15.3800001] yes=1,no=2,missing=2
	1:leaf=-0.0329931676
	2:[5<2.10899997] yes=3,no=4,missing=4
		3:leaf=-0.00462904945
		4:[6<5.53299999] yes=5,no=6,missing=6
			5:leaf=0.00356343994
			6:leaf=0.0342539214
booster[146]:
0:[0<12.7399998] yes=1,no=2,missing=2
	1:[6<4.96299982] yes=3,no=4,missing=4
		3:leaf=-0.00010115777
		4:leaf=0.0326371901
	2:[5<3.9849999] yes=5,no=6,missing=6
		5:leaf=-0.0318439268
		6:leaf=-0.00841684919
booster[147]:
0:[1<15.5100002] yes=1,no=2,missing=2
	1:[5<2.14400005] yes=3,no=4,missing=4
		3:leaf=0.029802978
		4:[0<12.7399998] yes=5,no=6,missing=6
			5:[6<4.80499983] yes=7,no=8,missing=8
				7:leaf=0.000704696809
				8:leaf=-0.0262061842
			6:[6<5.43900013] yes=9,no=10,missing=10
				9:leaf=0.0194877461
				10:leaf=-0.0110851619
	2:leaf=-0.0257867668
booster[148]:
0:[6<5.61800003] yes=1,no=2,missing=2
	1:[2<0.898800015] yes=3,no=4,missing=4
		3:leaf=-0.0336068161
		4:leaf=0.00272617303
	2:[5<2.24900007] yes=5,no=6,missing=6
		5:leaf=0.00372878881
		6:leaf=0.0328486823
booster[149]:
0:[0<13.5] yes=1,no=2,missing=2
	1:[6<4.96299982] yes=3,no=4,missing=4
		3:leaf=-0.00332965702
		4:leaf=0.029224053
	2:leaf=-0.0326900445
